digraph Tree {
0 [label="death <= 0.5000\ngini = 0.500000000019\nsamples = 917090", shape="box"] ;
1 [label="eventsum <= 3.5000\ngini = 0.000332799828027\nsamples = 806315", shape="box"] ;
0 -> 1 ;
2 [label="eventsum <= 1.5000\ngini = 0.000200570748452\nsamples = 802838", shape="box"] ;
1 -> 2 ;
3 [label="gini = 0.0000\nsamples = 783298\nvalue = [ 56265.51270595      0.        ]", shape="box"] ;
2 -> 3 ;
4 [label="residence <= 0.5000\ngini = 0.00817617514911\nsamples = 19540", shape="box"] ;
2 -> 4 ;
5 [label="birthyear <= 1886.5000\ngini = 0.0222271741239\nsamples = 7087", shape="box"] ;
4 -> 5 ;
6 [label="gini = 0.0405\nsamples = 3820\nvalue = [ 274.18104221    5.78450534]", shape="box"] ;
5 -> 6 ;
7 [label="gini = -0.0000\nsamples = 3267\nvalue = [ 234.67368742    0.        ]", shape="box"] ;
5 -> 7 ;
8 [label="gini = 0.0000\nsamples = 12453\nvalue = [ 894.51834389    0.        ]", shape="box"] ;
4 -> 8 ;
9 [label="gini = 0.0300\nsamples = 3477\nvalue = [ 249.61465069    3.85633689]", shape="box"] ;
1 -> 9 ;
10 [label="birth <= 0.5000\ngini = 0.148758383008\nsamples = 110775", shape="box"] ;
0 -> 10 ;
11 [label="gini = 0.0000\nsamples = 14756\nvalue = [ 1059.94641311     0.        ]", shape="box"] ;
10 -> 11 ;
12 [label="hasrelative <= 0.5000\ngini = 0.124345148417\nsamples = 96019", shape="box"] ;
10 -> 12 ;
13 [label="birthyear <= 17.5000\ngini = 0.0837573465655\nsamples = 53570", shape="box"] ;
12 -> 13 ;
14 [label="birthregion <= 1.5000\ngini = 0.278683235109\nsamples = 6996", shape="box"] ;
13 -> 14 ;
15 [label="gini = 0.3968\nsamples = 3444\nvalue = [ 225.04825917  599.66038666]", shape="box"] ;
14 -> 15 ;
16 [label="gini = 0.2057\nsamples = 3552\nvalue = [  198.90157346  1509.7558931 ]", shape="box"] ;
14 -> 16 ;
17 [label="namecount <= 2.5000\ngini = 0.0712259244141\nsamples = 46574", shape="box"] ;
13 -> 17 ;
18 [label="birthyear <= 1930.5000\ngini = 0.0975719316445\nsamples = 28748", shape="box"] ;
17 -> 18 ;
19 [label="birthyear <= 1811.5000\ngini = 0.0916501241058\nsamples = 25689", shape="box"] ;
18 -> 19 ;
20 [label="gini = 0.1068\nsamples = 12320\nvalue = [  545.99164313  9099.02689594]", shape="box"] ;
19 -> 20 ;
21 [label="gini = 0.0797\nsamples = 13369\nvalue = [   516.61253748  11910.29648999]", shape="box"] ;
19 -> 21 ;
22 [label="gini = 0.1694\nsamples = 3059\nvalue = [  161.40550219  1565.67277803]", shape="box"] ;
18 -> 22 ;
23 [label="birthyear <= 1922.5000\ngini = 0.0419469563887\nsamples = 17826", shape="box"] ;
17 -> 23 ;
24 [label="birthstate <= 32.5000\ngini = 0.0357284320494\nsamples = 14774", shape="box"] ;
23 -> 24 ;
25 [label="gini = 0.0432\nsamples = 5878\nvalue = [  159.46605022  7053.2401749 ]", shape="box"] ;
24 -> 25 ;
26 [label="gini = 0.0312\nsamples = 8896\nvalue = [   193.08321757  11970.06971181]", shape="box"] ;
24 -> 26 ;
27 [label="gini = 0.0847\nsamples = 3052\nvalue = [  121.53898963  2622.30908635]", shape="box"] ;
23 -> 27 ;
28 [label="relative <= 1.5000\ngini = 0.215834041294\nsamples = 42449", shape="box"] ;
12 -> 28 ;
29 [label="birthsubregion <= 5.5000\ngini = 0.430096650378\nsamples = 22151", shape="box"] ;
28 -> 29 ;
30 [label="birthsubregion <= 4.5000\ngini = 0.499355185662\nsamples = 10003", shape="box"] ;
29 -> 30 ;
31 [label="gini = 0.4798\nsamples = 3131\nvalue = [ 212.98055807  320.07596201]", shape="box"] ;
30 -> 31 ;
32 [label="birthyear <= 1759.5000\ngini = 0.498090634603\nsamples = 6872", shape="box"] ;
30 -> 32 ;
33 [label="gini = 0.5000\nsamples = 3008\nvalue = [ 208.2396755  210.1703606]", shape="box"] ;
32 -> 33 ;
34 [label="gini = 0.4929\nsamples = 3864\nvalue = [ 269.6556543   212.09852904]", shape="box"] ;
32 -> 34 ;
35 [label="namecount <= 2.5000\ngini = 0.363624186729\nsamples = 12148", shape="box"] ;
29 -> 35 ;
36 [label="birthyear <= 1853.5000\ngini = 0.444148898749\nsamples = 8205", shape="box"] ;
35 -> 36 ;
37 [label="gini = 0.4786\nsamples = 5013\nvalue = [ 340.76889291  518.67731193]", shape="box"] ;
36 -> 37 ;
38 [label="gini = 0.3882\nsamples = 3192\nvalue = [ 207.66502306  580.3787022 ]", shape="box"] ;
36 -> 38 ;
39 [label="gini = 0.2453\nsamples = 3943\nvalue = [  231.5849306   1386.35311256]", shape="box"] ;
35 -> 39 ;
40 [label="eventsum <= 2.5000\ngini = 0.118191992253\nsamples = 20298", shape="box"] ;
28 -> 40 ;
41 [label="namecount <= 2.5000\ngini = 0.197464764684\nsamples = 10715", shape="box"] ;
40 -> 41 ;
42 [label="birthstate <= 32.5000\ngini = 0.258438959023\nsamples = 6913", shape="box"] ;
41 -> 42 ;
43 [label="gini = 0.3339\nsamples = 3006\nvalue = [ 189.63530297  705.70965118]", shape="box"] ;
42 -> 43 ;
44 [label="gini = 0.2157\nsamples = 3907\nvalue = [  221.74400768  1581.09812559]", shape="box"] ;
42 -> 44 ;
45 [label="gini = 0.1281\nsamples = 3802\nvalue = [  181.51833735  2458.41476845]", shape="box"] ;
41 -> 45 ;
46 [label="namecount <= 2.5000\ngini = 0.0698307239774\nsamples = 9583", shape="box"] ;
40 -> 46 ;
47 [label="gini = 0.1129\nsamples = 4142\nvalue = [  187.91134567  2942.38504836]", shape="box"] ;
46 -> 47 ;
48 [label="gini = 0.0480\nsamples = 5441\nvalue = [  157.81392448  6254.97843832]", shape="box"] ;
46 -> 48 ;
}