digraph Tree {
0 [label="personahintsgeneratedcount <= 0.5000\ngini = 0.485245187061\nsamples = 63807", shape="box"] ;
1 [label="regtype <= 0.5000\ngini = 0.462393290749\nsamples = 42370", shape="box"] ;
0 -> 1 ;
2 [label="secondsessionlength <= 4.5000\ngini = 0.445644200431\nsamples = 33896", shape="box"] ;
1 -> 2 ;
3 [label="firstsessionlength <= 21.5000\ngini = 0.426645774818\nsamples = 26899", shape="box"] ;
2 -> 3 ;
4 [label="lastofferpage <= 6.5000\ngini = 0.398256390398\nsamples = 17023", shape="box"] ;
3 -> 4 ;
5 [label="entrypage <= 11.5000\ngini = 0.415331152223\nsamples = 14131", shape="box"] ;
4 -> 5 ;
6 [label="gini = 0.4315\nsamples = 10429\nvalue = [ 7144.  3285.]", shape="box"] ;
5 -> 6 ;
7 [label="gini = 0.3604\nsamples = 3702\nvalue = [ 2829.   873.]", shape="box"] ;
5 -> 7 ;
8 [label="lastofferpage <= 7.5000\ngini = 0.292286251576\nsamples = 2892", shape="box"] ;
4 -> 8 ;
9 [label="gini = 0.2501\nsamples = 1802\nvalue = [ 1538.   264.]", shape="box"] ;
8 -> 9 ;
10 [label="gini = 0.3535\nsamples = 1090\nvalue = [ 840.  250.]", shape="box"] ;
8 -> 10 ;
11 [label="contentimageviewdbcountin2hours <= 1.5000\ngini = 0.464703186257\nsamples = 9876", shape="box"] ;
3 -> 11 ;
12 [label="device <= 3.5000\ngini = 0.45079440336\nsamples = 6895", shape="box"] ;
11 -> 12 ;
13 [label="gini = 0.4202\nsamples = 2115\nvalue = [ 1480.   635.]", shape="box"] ;
12 -> 13 ;
14 [label="gini = 0.4620\nsamples = 4780\nvalue = [ 3049.  1731.]", shape="box"] ;
12 -> 14 ;
15 [label="netnodesgrowthin2hours <= 1.5000\ngini = 0.488042293128\nsamples = 2981", shape="box"] ;
11 -> 15 ;
16 [label="gini = 0.4954\nsamples = 1618\nvalue = [ 887.  731.]", shape="box"] ;
15 -> 16 ;
17 [label="gini = 0.4750\nsamples = 1363\nvalue = [ 834.  529.]", shape="box"] ;
15 -> 17 ;
18 [label="device <= 3.5000\ngini = 0.49221650333\nsamples = 6997", shape="box"] ;
2 -> 18 ;
19 [label="entrypage <= 6.5000\ngini = 0.462895905957\nsamples = 1729", shape="box"] ;
18 -> 19 ;
20 [label="gini = 0.4816\nsamples = 985\nvalue = [ 587.  398.]", shape="box"] ;
19 -> 20 ;
21 [label="gini = 0.4282\nsamples = 744\nvalue = [ 513.  231.]", shape="box"] ;
19 -> 21 ;
22 [label="secondsessionlength <= 46.5000\ngini = 0.497088407594\nsamples = 5268", shape="box"] ;
18 -> 22 ;
23 [label="sessioncount24 <= 2.5000\ngini = 0.491483028764\nsamples = 3287", shape="box"] ;
22 -> 23 ;
24 [label="gini = 0.4852\nsamples = 1838\nvalue = [ 1077.   761.]", shape="box"] ;
23 -> 24 ;
25 [label="gini = 0.4970\nsamples = 1449\nvalue = [ 781.  668.]", shape="box"] ;
23 -> 25 ;
26 [label="firstactivity2houraftersignup <= 8.0000\ngini = 0.499907118637\nsamples = 1981", shape="box"] ;
22 -> 26 ;
27 [label="gini = 0.4931\nsamples = 922\nvalue = [ 407.  515.]", shape="box"] ;
26 -> 27 ;
28 [label="gini = 0.4971\nsamples = 1059\nvalue = [ 570.  489.]", shape="box"] ;
26 -> 28 ;
29 [label="secondsessionlength <= 10.5000\ngini = 0.498627352494\nsamples = 8474", shape="box"] ;
1 -> 29 ;
30 [label="totalpendinghintscountatsignup <= 1.5000\ngini = 0.494537347797\nsamples = 6410", shape="box"] ;
29 -> 30 ;
31 [label="lastofferpage <= 3.0000\ngini = 0.487627471488\nsamples = 5003", shape="box"] ;
30 -> 31 ;
32 [label="firstsessionlength <= 50.5000\ngini = 0.494110708678\nsamples = 3787", shape="box"] ;
31 -> 32 ;
33 [label="gini = 0.4859\nsamples = 2970\nvalue = [ 1734.  1236.]", shape="box"] ;
32 -> 33 ;
34 [label="gini = 0.4943\nsamples = 817\nvalue = [ 365.  452.]", shape="box"] ;
32 -> 34 ;
35 [label="gini = 0.4522\nsamples = 1216\nvalue = [ 796.  420.]", shape="box"] ;
31 -> 35 ;
36 [label="searchcountin2hours <= 7.5000\ngini = 0.49654256891\nsamples = 1407", shape="box"] ;
30 -> 36 ;
37 [label="gini = 0.4882\nsamples = 735\nvalue = [ 311.  424.]", shape="box"] ;
36 -> 37 ;
38 [label="gini = 0.5000\nsamples = 672\nvalue = [ 334.  338.]", shape="box"] ;
36 -> 38 ;
39 [label="netnodescountatsignup <= 2.5000\ngini = 0.494005299411\nsamples = 2064", shape="box"] ;
29 -> 39 ;
40 [label="gini = 0.4998\nsamples = 783\nvalue = [ 400.  383.]", shape="box"] ;
39 -> 40 ;
41 [label="recordhintsgeneratedcount <= 1.5000\ngini = 0.482007799088\nsamples = 1281", shape="box"] ;
39 -> 41 ;
42 [label="gini = 0.4872\nsamples = 638\nvalue = [ 268.  370.]", shape="box"] ;
41 -> 42 ;
43 [label="gini = 0.4760\nsamples = 643\nvalue = [ 251.  392.]", shape="box"] ;
41 -> 43 ;
44 [label="regtype <= 0.5000\ngini = 0.499527488027\nsamples = 21437", shape="box"] ;
0 -> 44 ;
45 [label="secondsessionlength <= 18.5000\ngini = 0.499639927715\nsamples = 15241", shape="box"] ;
44 -> 45 ;
46 [label="firstsessionlength <= 47.5000\ngini = 0.49662083479\nsamples = 10303", shape="box"] ;
45 -> 46 ;
47 [label="personahintacteduponcount <= 0.5000\ngini = 0.485820049045\nsamples = 4317", shape="box"] ;
46 -> 47 ;
48 [label="personahintsgeneratedcount <= 7.5000\ngini = 0.493460493494\nsamples = 2938", shape="box"] ;
47 -> 48 ;
49 [label="gini = 0.4872\nsamples = 2288\nvalue = [ 1327.   961.]", shape="box"] ;
48 -> 49 ;
50 [label="gini = 0.4989\nsamples = 650\nvalue = [ 310.  340.]", shape="box"] ;
48 -> 50 ;
51 [label="recordhintsgeneratedcount <= 15.5000\ngini = 0.459802875516\nsamples = 1379", shape="box"] ;
47 -> 51 ;
52 [label="gini = 0.4402\nsamples = 697\nvalue = [ 469.  228.]", shape="box"] ;
51 -> 52 ;
53 [label="gini = 0.4758\nsamples = 682\nvalue = [ 416.  266.]", shape="box"] ;
51 -> 53 ;
54 [label="signupsubscription <= 0.5000\ngini = 0.49979906339\nsamples = 5986", shape="box"] ;
46 -> 54 ;
55 [label="recordhintsgeneratedcount <= 16.5000\ngini = 0.499800363141\nsamples = 4404", shape="box"] ;
54 -> 55 ;
56 [label="gini = 0.4981\nsamples = 1648\nvalue = [ 875.  773.]", shape="box"] ;
55 -> 56 ;
57 [label="gini = 0.4976\nsamples = 2756\nvalue = [ 1283.  1473.]", shape="box"] ;
55 -> 57 ;
58 [label="firstsessionlength <= 93.5000\ngini = 0.491356617829\nsamples = 1582", shape="box"] ;
54 -> 58 ;
59 [label="gini = 0.4797\nsamples = 754\nvalue = [ 453.  301.]", shape="box"] ;
58 -> 59 ;
60 [label="gini = 0.4977\nsamples = 828\nvalue = [ 442.  386.]", shape="box"] ;
58 -> 60 ;
61 [label="signupsubscription <= 0.5000\ngini = 0.496066165778\nsamples = 4938", shape="box"] ;
45 -> 61 ;
62 [label="secondsessionlength <= 62.5000\ngini = 0.489575609319\nsamples = 3539", shape="box"] ;
61 -> 62 ;
63 [label="searchcountin2hours <= 12.5000\ngini = 0.495462491474\nsamples = 1921", shape="box"] ;
62 -> 63 ;
64 [label="gini = 0.4838\nsamples = 722\nvalue = [ 296.  426.]", shape="box"] ;
63 -> 64 ;
65 [label="gini = 0.4990\nsamples = 1199\nvalue = [ 573.  626.]", shape="box"] ;
63 -> 65 ;
66 [label="familytreeviewin2hours <= 4.5000\ngini = 0.479452421079\nsamples = 1618", shape="box"] ;
62 -> 66 ;
67 [label="gini = 0.4662\nsamples = 962\nvalue = [ 356.  606.]", shape="box"] ;
66 -> 67 ;
68 [label="gini = 0.4929\nsamples = 656\nvalue = [ 289.  367.]", shape="box"] ;
66 -> 68 ;
69 [label="familytreeviewin2hours <= 1.5000\ngini = 0.498638617086\nsamples = 1399", shape="box"] ;
61 -> 69 ;
70 [label="gini = 0.4999\nsamples = 661\nvalue = [ 327.  334.]", shape="box"] ;
69 -> 70 ;
71 [label="gini = 0.4941\nsamples = 738\nvalue = [ 409.  329.]", shape="box"] ;
69 -> 71 ;
72 [label="totalpendinghintscountatsignup <= 0.5000\ngini = 0.485144417294\nsamples = 6196", shape="box"] ;
44 -> 72 ;
73 [label="firstsessionlength <= 122.5000\ngini = 0.492546646836\nsamples = 3784", shape="box"] ;
72 -> 73 ;
74 [label="searchcountin2hours <= 15.5000\ngini = 0.497010088931\nsamples = 2651", shape="box"] ;
73 -> 74 ;
75 [label="gini = 0.4888\nsamples = 1124\nvalue = [ 478.  646.]", shape="box"] ;
74 -> 75 ;
76 [label="secondsessionlength <= 1.5000\ngini = 0.499706441014\nsamples = 1527", shape="box"] ;
74 -> 76 ;
77 [label="gini = 0.4989\nsamples = 810\nvalue = [ 424.  386.]", shape="box"] ;
76 -> 77 ;
78 [label="gini = 0.4945\nsamples = 717\nvalue = [ 321.  396.]", shape="box"] ;
76 -> 78 ;
79 [label="gini = 0.4743\nsamples = 1133\nvalue = [ 438.  695.]", shape="box"] ;
73 -> 79 ;
80 [label="personahintsgeneratedcount <= 6.5000\ngini = 0.468438281231\nsamples = 2412", shape="box"] ;
72 -> 80 ;
81 [label="gini = 0.4871\nsamples = 1096\nvalue = [ 460.  636.]", shape="box"] ;
80 -> 81 ;
82 [label="searchdbcountin2hours <= 7.5000\ngini = 0.446617963618\nsamples = 1316", shape="box"] ;
80 -> 82 ;
83 [label="gini = 0.4184\nsamples = 651\nvalue = [ 194.  457.]", shape="box"] ;
82 -> 83 ;
84 [label="gini = 0.4685\nsamples = 665\nvalue = [ 249.  416.]", shape="box"] ;
82 -> 84 ;
}